-0.3697055E+01  0.3698794E+00  0.1106337E-03
-0.3819131E+01  0.2643368E+00  0.6950097E-04
-0.3619264E+01  0.3105723E+00  0.1204066E-04
-0.3208972E+01  0.4798700E+00  0.2452469E-04
-0.3610254E+01  0.4202962E+00  0.1436096E-03
-0.3600522E+01  0.3438596E+00  0.1130000E-03
-0.3547987E+01  0.3553765E+00  0.1617818E-03
-0.3216335E+01  0.4389581E+00  0.1155478E-02
-0.3703990E+01  0.2849584E+00  0.3629589E-04
-0.3583229E+01  0.3516410E+00  0.1489710E-04
-0.3248557E+01  0.4138959E+00  0.5779575E-03
-0.3978489E+01  0.2303853E+00  0.1131980E-01
-0.3876999E+01  0.2572004E+00  0.2376868E-03
-0.3577684E+01  0.3352971E+00  0.3282310E-04
-0.3332513E+01  0.4355549E+00  0.1725453E-03
-0.3381694E+01  0.4010402E+00  0.9008743E-05
-0.3570503E+01  0.3800281E+00  0.4491814E-04
-0.3918069E+01  0.2997188E+00  0.5995887E-02
-0.3700907E+01  0.3310784E+00  0.1670537E-04
-0.4139675E+01  0.1769326E+00  0.9813616E-01
-0.3209865E+01  0.5483193E+00  0.1791926E-03
-0.3840869E+01  0.2436754E+00  0.4577817E-03
-0.3418994E+01  0.4423650E+00  0.4366454E-03
-0.3218593E+01  0.4610700E+00  0.7962340E-03
-0.3477692E+01  0.3970599E+00  0.3792408E-04
-0.3578121E+01  0.3513358E+00  0.9523103E-04
-0.3727268E+01  0.2686149E+00  0.1412988E-02
-0.3493368E+01  0.3542759E+00  0.1202373E-03
-0.3677552E+01  0.3070178E+00  0.1133596E-04
-0.3888491E+01  0.2251804E+00  0.1977340E-02
-0.3733795E+01  0.3345725E+00  0.5966344E-04
-0.3381493E+01  0.4579132E+00  0.9290198E-04
-0.3401517E+01  0.4136703E+00  0.5991989E-04
-0.3752882E+01  0.2921302E+00  0.3789162E-04
-0.3476855E+01  0.3583835E+00  0.4201971E-04
-0.3361347E+01  0.3612149E+00  0.2935888E-04
-0.3550868E+01  0.3224538E+00  0.2482262E-04
-0.3530538E+01  0.3601083E+00  0.3807723E-04
-0.3073460E+01  0.5305019E+00  0.2169791E-03
-0.3431610E+01  0.4092813E+00  0.1328569E-03
-0.3430831E+01  0.3904365E+00  0.1217969E-03
-0.3169057E+01  0.6958867E+00  0.2224509E-03
-0.3443598E+01  0.4047838E+00  0.1940330E-04
-0.3388897E+01  0.3869171E+00  0.1395304E-04
-0.3487015E+01  0.3878817E+00  0.1321383E-02
-0.3554489E+01  0.3884567E+00  0.5935560E-04
-0.3502287E+01  0.3878330E+00  0.1334994E-04
-0.3582919E+01  0.3588748E+00  0.7599238E-04
-0.3596655E+01  0.3238561E+00  0.3434269E-04
-0.3453260E+01  0.3835940E+00  0.9948158E-05
-0.3619614E+01  0.3056890E+00  0.1864872E-04
-0.3538047E+01  0.3610237E+00  0.1012908E-04
-0.3450738E+01  0.3670940E+00  0.6653699E-05
-0.3457360E+01  0.3541432E+00  0.3854837E-04
-0.3285491E+01  0.4380066E+00  0.1150980E-04
-0.3349745E+01  0.4300457E+00  0.2954438E-04
-0.3667902E+01  0.3287344E+00  0.8802830E-04
-0.3343094E+01  0.4305606E+00  0.1618720E-03
-0.3349776E+01  0.3917414E+00  0.1748127E-04
-0.3541546E+01  0.3288069E+00  0.1980429E-03
-0.3522285E+01  0.3849704E+00  0.8047192E-04
-0.3683367E+01  0.3437482E+00  0.8613693E-02
-0.3757298E+01  0.3389125E+00  0.1543641E-03
-0.3469791E+01  0.3859067E+00  0.6684353E-05
-0.3564761E+01  0.3986710E+00  0.2103627E-03
-0.3409238E+01  0.4181436E+00  0.3335169E-04
-0.3711649E+01  0.3750103E+00  0.6024188E-04
-0.3666248E+01  0.2907421E+00  0.2035618E-04
-0.3440632E+01  0.3279112E+00  0.1107362E-02
-0.3464602E+01  0.4140412E+00  0.3959036E-04
-0.3585889E+01  0.3540551E+00  0.5866419E-03
-0.3993296E+01  0.2155744E+00  0.5263478E-02
-0.3309115E+01  0.4246747E+00  0.2895625E-02
-0.3328345E+01  0.4425544E+00  0.9546558E-05
-0.3410804E+01  0.4127876E+00  0.4989883E-04
-0.3429683E+01  0.3580307E+00  0.2282487E-04
-0.3649932E+01  0.3691899E+00  0.8848698E-04
-0.3411764E+01  0.4316350E+00  0.2848526E-04
-0.3572186E+01  0.3437144E+00  0.9090707E-05
-0.3718518E+01  0.3195652E+00  0.8843312E-03
-0.3132817E+01  0.4779475E+00  0.3546801E-03
-0.3615587E+01  0.3352769E+00  0.2369243E-02
-0.3480245E+01  0.4083877E+00  0.6882860E-04
-0.3337475E+01  0.3826680E+00  0.1879773E-03
-0.3287465E+01  0.4153571E+00  0.3647364E-04
-0.3552375E+01  0.3708314E+00  0.2093327E-04
-0.3420806E+01  0.4086152E+00  0.5345439E-04
-0.3220103E+01  0.4742766E+00  0.3208716E-04
-0.3519412E+01  0.2564301E+00  0.1071731E-01
-0.3628256E+01  0.3379278E+00  0.1503226E-04
-0.3581900E+01  0.3349288E+00  0.2898485E-04
-0.3375809E+01  0.4498445E+00  0.5168707E-04
-0.3462064E+01  0.4265955E+00  0.7751840E-04
-0.3472668E+01  0.3196626E+00  0.6793896E-04
-0.3836752E+01  0.2873885E+00  0.3394146E-03
-0.3568239E+01  0.3205221E+00  0.2844389E-03
-0.3498813E+01  0.3418714E+00  0.2732183E-04
-0.3619972E+01  0.2798143E+00  0.1483543E-03
-0.3473402E+01  0.3527561E+00  0.1231690E-03
-0.3150681E+01  0.4736889E+00  0.5708016E-03
-0.3346297E+01  0.3919652E+00  0.1405426E-04
-0.3503289E+01  0.3826052E+00  0.8540108E-03
-0.3696496E+01  0.3018529E+00  0.1523966E-04
-0.3306968E+01  0.3980620E+00  0.8121042E-04
-0.3722943E+01  0.3078007E+00  0.7879901E-04
-0.3510378E+01  0.3562655E+00  0.7100433E-05
-0.3436824E+01  0.3998159E+00  0.3937187E-04
-0.3395471E+01  0.4358552E+00  0.2032741E-04
-0.3405270E+01  0.4008498E+00  0.8848288E-05
-0.3230951E+01  0.4594519E+00  0.6879875E-04
-0.3566802E+01  0.3596500E+00  0.1082342E-04
-0.3553921E+01  0.3425504E+00  0.7411618E-04
-0.3482803E+01  0.3621491E+00  0.9732354E-04
-0.3671748E+01  0.3703196E+00  0.5496049E-04
-0.3258886E+01  0.4810425E+00  0.1252389E-03
-0.3372287E+01  0.3564672E+00  0.2552153E-03
-0.3458474E+01  0.3967857E+00  0.1089848E-04
-0.3359403E+01  0.3497472E+00  0.5153773E-02
-0.3510098E+01  0.4378302E+00  0.5524301E-03
-0.3477169E+01  0.3784973E+00  0.6661908E-05
-0.3760711E+01  0.2317312E+00  0.3725675E-03
-0.3404797E+01  0.4076652E+00  0.6328329E-05
-0.3814294E+01  0.3366984E+00  0.5018285E-03
-0.3374120E+01  0.4228351E+00  0.6650697E-04
-0.3652664E+01  0.3463455E+00  0.1306290E-01
-0.3439760E+01  0.3690017E+00  0.1785982E-04
-0.3103967E+01  0.5849468E+00  0.1122614E-03
-0.3349615E+01  0.5053046E+00  0.3018289E-04
-0.3514935E+01  0.3836968E+00  0.5526437E-04
-0.3691949E+01  0.3139374E+00  0.6094842E-04
-0.3636618E+01  0.3238628E+00  0.1538050E-04
-0.3587046E+01  0.3160433E+00  0.9902755E-05
-0.3557762E+01  0.3848917E+00  0.2428693E-04
-0.3504384E+01  0.4327839E+00  0.2144270E-02
-0.3609588E+01  0.3140850E+00  0.3581156E-04
-0.3701160E+01  0.2924008E+00  0.1760015E-04
-0.3561790E+01  0.3804228E+00  0.1421974E-03
-0.3480304E+01  0.3246362E+00  0.4317134E-04
-0.3282004E+01  0.4245597E+00  0.4228914E-04
-0.3615832E+01  0.3275393E+00  0.1257769E-04
-0.3465730E+01  0.3151346E+00  0.5859653E-04
-0.3254724E+01  0.4526117E+00  0.2047532E-03
-0.3564727E+01  0.3867533E+00  0.6991498E-04
-0.3637190E+01  0.3219060E+00  0.6184559E-04
-0.3365940E+01  0.4274981E+00  0.7444513E-03
-0.3542835E+01  0.3439593E+00  0.2931309E-04
-0.3428773E+01  0.3798901E+00  0.1689919E-04
-0.3456435E+01  0.3937303E+00  0.1450826E-04
-0.3321041E+01  0.4154566E+00  0.2514939E-04
-0.3430916E+01  0.3868201E+00  0.2490950E-04
-0.3439628E+01  0.3270780E+00  0.1613966E-03
-0.3736156E+01  0.3384823E+00  0.1223058E-03
-0.3263114E+01  0.4382035E+00  0.1349839E-03
-0.3544589E+01  0.3464730E+00  0.1208729E-04
-0.3174003E+01  0.4635093E+00  0.1599326E-03
-0.3241903E+01  0.4234696E+00  0.3236576E-03
-0.3394381E+01  0.3838584E+00  0.8656786E-04
-0.3472201E+01  0.4014563E+00  0.6584162E-04
-0.3111612E+01  0.4480984E+00  0.8028659E-02
-0.3532924E+01  0.4694121E+00  0.4739881E-02
-0.3411885E+01  0.3831308E+00  0.6207209E-05
-0.3653370E+01  0.3207799E+00  0.1169543E-03
-0.3458112E+01  0.3330074E+00  0.9233488E-04
-0.3320435E+01  0.3905646E+00  0.1723687E-03
-0.3250941E+01  0.4507913E+00  0.5374812E-03
-0.3249329E+01  0.4150975E+00  0.1725052E-03
-0.3264818E+01  0.4294492E+00  0.8905815E-04
-0.3542641E+01  0.3738211E+00  0.3335273E-03
-0.3574332E+01  0.4148731E+00  0.1038620E-03
-0.3793932E+01  0.3700610E+00  0.1605491E-03
-0.3440001E+01  0.3875911E+00  0.1784719E-04
-0.3464309E+01  0.3371256E+00  0.2328748E-04
-0.3473952E+01  0.2986279E+00  0.2472414E-02
-0.3510740E+01  0.3808405E+00  0.2918148E-02
-0.3632243E+01  0.3312370E+00  0.3963083E-04
-0.3755684E+01  0.2851173E+00  0.2895567E-04
-0.3488284E+01  0.3840584E+00  0.9302036E-05
-0.3358905E+01  0.4303523E+00  0.2599562E-04
-0.3293231E+01  0.4358072E+00  0.3353227E-04
-0.3211201E+01  0.4426279E+00  0.7951796E-03
-0.3379455E+01  0.4172288E+00  0.3030077E-04
-0.3374090E+01  0.3924815E+00  0.1058453E-04
-0.3601181E+01  0.3504801E+00  0.1874614E-04
-0.3238879E+01  0.4913280E+00  0.6012578E-04
-0.3433548E+01  0.3362274E+00  0.1024669E-03
-0.3369754E+01  0.3583864E+00  0.1509636E-03
-0.3802127E+01  0.2297528E+00  0.2112837E-03
-0.3617540E+01  0.2718304E+00  0.7560633E-04
-0.3607546E+01  0.3154153E+00  0.1669440E-04
-0.3438447E+01  0.3521000E+00  0.5264936E-04
-0.3332784E+01  0.3681473E+00  0.2376492E-03
-0.3227070E+01  0.4938635E+00  0.8123018E-03
-0.3608105E+01  0.3564120E+00  0.8734155E-04
-0.3455176E+01  0.3844798E+00  0.2637555E-04
-0.3286796E+01  0.4609346E+00  0.5531237E-04
-0.3651049E+01  0.3561691E+00  0.2316532E-02
-0.3479654E+01  0.3959930E+00  0.1063996E-03
-0.3458305E+01  0.3778387E+00  0.1148384E-04
-0.3456227E+01  0.3823604E+00  0.8135254E-05
-0.3375340E+01  0.4177578E+00  0.9095706E-05
-0.3549164E+01  0.3502392E+00  0.3046585E-04
-0.3749436E+01  0.2888005E+00  0.2024075E-04
-0.3469151E+01  0.4058825E+00  0.2863401E-04
-0.3385495E+01  0.4241897E+00  0.1305666E-03
-0.3772819E+01  0.2781919E+00  0.2432067E-03
-0.3895360E+01  0.2162858E+00  0.4625084E-03
-0.3613848E+01  0.3139851E+00  0.7373630E-04
-0.3268099E+01  0.3997284E+00  0.3866930E-03
-0.3533589E+01  0.3507962E+00  0.4331672E-04
-0.3643170E+01  0.3198390E+00  0.2054239E-04
-0.3277969E+01  0.4335139E+00  0.3399517E-03
-0.3273914E+01  0.4569085E+00  0.5328733E-04
-0.3293980E+01  0.4919153E+00  0.4742418E-03
-0.3377660E+01  0.4020402E+00  0.2301325E-04
-0.3293935E+01  0.4595029E+00  0.2767159E-04
-0.3570178E+01  0.3554753E+00  0.1284013E-04
-0.3585251E+01  0.3198797E+00  0.1880815E-04
-0.3476429E+01  0.3986476E+00  0.1198635E-03
-0.3140625E+01  0.6351871E+00  0.2958823E-03
-0.3114583E+01  0.4878346E+00  0.2452058E-03
-0.3238369E+01  0.4105768E+00  0.7191095E-04
-0.3315438E+01  0.4225561E+00  0.8564721E-05
-0.3671759E+01  0.3368005E+00  0.2667521E-04
-0.3322492E+01  0.3984235E+00  0.2046156E-04
-0.3688013E+01  0.2588413E+00  0.8824305E-04
-0.3713733E+01  0.2983237E+00  0.4344391E-04
-0.3359156E+01  0.3762069E+00  0.1356100E-04
-0.3615317E+01  0.2940252E+00  0.1281919E-04
-0.3687754E+01  0.3506025E+00  0.5520785E-04
-0.3442083E+01  0.4032848E+00  0.2003767E-03
-0.4002706E+01  0.2213518E+00  0.4666023E-02
-0.3564650E+01  0.3452948E+00  0.8457925E-05
-0.3293979E+01  0.4157339E+00  0.3951601E-04
-0.3589358E+01  0.3182583E+00  0.7352754E-05
-0.3286335E+01  0.5027339E+00  0.1891746E-04
-0.3485251E+01  0.4617955E+00  0.3265938E-03
-0.3243134E+01  0.4956665E+00  0.1518941E-03
-0.3601832E+01  0.3380838E+00  0.3987959E-04
-0.3462091E+01  0.3737414E+00  0.2694661E-04
-0.3559148E+01  0.3673269E+00  0.1090008E-03
-0.3471914E+01  0.3562047E+00  0.1191637E-04
-0.3524888E+01  0.3763499E+00  0.1223414E-04
-0.3362710E+01  0.4119603E+00  0.1252100E-02
-0.3848341E+01  0.2545541E+00  0.1853816E-03
-0.3695964E+01  0.3073287E+00  0.4177384E-03
-0.3681134E+01  0.3521401E+00  0.7751088E-04
-0.3582894E+01  0.3326341E+00  0.2242167E-04
-0.3534905E+01  0.3990255E+00  0.1924159E-03
-0.3337079E+01  0.4166764E+00  0.4231098E-04
-0.3384554E+01  0.4156885E+00  0.1020574E-03
-0.3626049E+01  0.2826477E+00  0.3810726E-03
-0.3432571E+01  0.4011960E+00  0.8712950E-04
-0.3759993E+01  0.2856845E+00  0.5350731E-03
-0.3650697E+01  0.2987326E+00  0.6418282E-04
-0.3427071E+01  0.3362428E+00  0.1716156E-04
-0.3742897E+01  0.3183144E+00  0.2862129E-03
-0.3288596E+01  0.4133844E+00  0.2527029E-03
-0.3315803E+01  0.4177032E+00  0.6038439E-04
-0.3141088E+01  0.5445632E+00  0.1043437E-03
-0.3321315E+01  0.4884008E+00  0.1663613E-03
-0.3554058E+01  0.3826756E+00  0.1125557E-03
-0.3315145E+01  0.4105442E+00  0.3049773E-03
-0.3412624E+01  0.4239598E+00  0.1300246E-04
-0.3759432E+01  0.4275674E+00  0.3868588E-03
-0.3138654E+01  0.5547506E+00  0.1409483E-03
-0.3257989E+01  0.4849065E+00  0.5351463E-04
-0.3631003E+01  0.3231358E+00  0.9142682E-05
-0.3264924E+01  0.4598186E+00  0.3444362E-04
-0.3540432E+01  0.3780634E+00  0.1492482E-04
-0.3341827E+01  0.4335525E+00  0.9832506E-05
-0.3659544E+01  0.3467595E+00  0.2490694E-03
-0.3545433E+01  0.3616620E+00  0.1337638E-03
-0.3844130E+01  0.3184731E+00  0.3561326E-03
-0.3604083E+01  0.2775386E+00  0.2185170E-03
-0.3504883E+01  0.3406398E+00  0.5819984E-05
-0.3586293E+01  0.3028556E+00  0.1933911E-04
-0.3492600E+01  0.3121161E+00  0.1780722E-03
-0.3530200E+01  0.3152296E+00  0.1321096E-03
-0.3593029E+01  0.3274311E+00  0.7264711E-05
-0.3578793E+01  0.3005094E+00  0.3099008E-04
-0.3795297E+01  0.3189175E+00  0.3892487E-04
-0.3441134E+01  0.3956954E+00  0.3113191E-04
-0.3602519E+01  0.2966515E+00  0.5211911E-03
-0.3359357E+01  0.4285015E+00  0.2825385E-04
-0.3481014E+01  0.3810644E+00  0.4709506E-04
-0.3480591E+01  0.4102566E+00  0.1099233E-03
-0.3515755E+01  0.4104383E+00  0.1102403E-02
-0.3534873E+01  0.4087563E+00  0.2099323E-02
-0.3437307E+01  0.4191861E+00  0.2738453E-04
-0.3512367E+01  0.2768708E+00  0.3398334E-03
-0.3552489E+01  0.3347422E+00  0.4441925E-03
-0.3656796E+01  0.3243166E+00  0.2273512E-04
-0.3416098E+01  0.4642340E+00  0.8207694E-04
-0.3529266E+01  0.4398274E+00  0.2898360E-03
-0.3346467E+01  0.4412796E+00  0.1631127E-03
-0.3549410E+01  0.2884764E+00  0.1728366E-03
-0.3318081E+01  0.4348340E+00  0.1577467E-04
-0.3560627E+01  0.3433761E+00  0.9008346E-05
-0.3343138E+01  0.4293922E+00  0.9797173E-05
-0.3157310E+01  0.4569287E+00  0.4707309E-02
-0.3548524E+01  0.3605508E+00  0.3468312E-03
-0.3574895E+01  0.3504392E+00  0.9210432E-05
-0.3386454E+01  0.4002540E+00  0.1314320E-04
-0.3283560E+01  0.3683930E+00  0.5254044E-03
-0.3596275E+01  0.3948338E+00  0.1853483E-03
-0.3451783E+01  0.3950954E+00  0.6037203E-04
-0.3309233E+01  0.4352357E+00  0.4004731E-03
-0.3428152E+01  0.3900566E+00  0.1542338E-04
-0.3649715E+01  0.3130937E+00  0.2812453E-04
-0.3517765E+01  0.3553739E+00  0.2479058E-03
-0.3591292E+01  0.3621998E+00  0.2458701E-03
-0.3364893E+01  0.4774873E+00  0.8793699E-03
-0.3557676E+01  0.3643826E+00  0.1320790E-04
-0.3445514E+01  0.3739202E+00  0.1247546E-04
-0.3538471E+01  0.3639570E+00  0.1932578E-04
-0.3632673E+01  0.3072577E+00  0.2641354E-04
-0.3390904E+01  0.4021585E+00  0.2143900E-04
-0.3427538E+01  0.3748450E+00  0.1096985E-03
-0.3809758E+01  0.2508570E+00  0.1008658E-03
-0.3315176E+01  0.4061210E+00  0.2419455E-03
-0.3523772E+01  0.4339537E+00  0.5584487E-02
-0.3466060E+01  0.3616797E+00  0.1175835E-04
-0.3530918E+01  0.3359432E+00  0.1363201E-04
-0.3471208E+01  0.3467398E+00  0.1646736E-04
-0.3477478E+01  0.3690592E+00  0.4017556E-04
-0.3435075E+01  0.3389088E+00  0.1514804E-03
-0.3909917E+01  0.3343988E+00  0.3286471E-03
-0.3829219E+01  0.3678704E+00  0.1704803E-01
-0.3493572E+01  0.3598691E+00  0.7123611E-05
-0.3735231E+01  0.2821091E+00  0.5875424E-04
-0.3567108E+01  0.3415702E+00  0.1404667E-03
-0.3361846E+01  0.3890365E+00  0.1922415E-04
-0.3484664E+01  0.4065621E+00  0.5015111E-04
-0.3784021E+01  0.3157335E+00  0.2551448E-03
-0.3645452E+01  0.2976373E+00  0.2970847E-04
-0.3484657E+01  0.3310384E+00  0.2016034E-04
-0.3539232E+01  0.3692576E+00  0.1778625E-04
-0.3374553E+01  0.3738732E+00  0.3595881E-04
-0.3190844E+01  0.4782141E+00  0.5916563E-04
-0.3564813E+01  0.3679032E+00  0.1872538E-03
-0.3461740E+01  0.3328041E+00  0.7474122E-04
-0.3444679E+01  0.3864765E+00  0.6587535E-05
-0.3293517E+01  0.4204677E+00  0.5819745E-04
-0.3448719E+01  0.3235807E+00  0.3741309E-04
-0.3268076E+01  0.3807230E+00  0.1932317E-03
-0.3658864E+01  0.3452562E+00  0.2188106E-04
-0.3319872E+01  0.4201030E+00  0.2473549E-03
-0.3630402E+01  0.3251918E+00  0.1954954E-03
-0.3509711E+01  0.3731253E+00  0.6295234E-05
-0.3523452E+01  0.3828419E+00  0.7558171E-04
-0.3712078E+01  0.3005167E+00  0.4168309E-04
-0.3579069E+01  0.3663180E+00  0.2678128E-04
-0.3444525E+01  0.4259226E+00  0.4688268E-04
-0.3749742E+01  0.3208638E+00  0.2743890E-04
-0.3644872E+01  0.3487809E+00  0.1357494E-04
-0.3510929E+01  0.3574820E+00  0.5667864E-04
-0.3778802E+01  0.4039528E+00  0.7483117E-03
-0.3488381E+01  0.3769439E+00  0.1040180E-04
-0.3225167E+01  0.4759473E+00  0.1598328E-04
-0.3544988E+01  0.3349890E+00  0.2681196E-04
-0.3489586E+01  0.3699025E+00  0.8908263E-05
-0.3626183E+01  0.2981493E+00  0.1665345E-04
-0.3177632E+01  0.3722035E+00  0.2136467E-02
-0.3532832E+01  0.4087662E+00  0.3615194E-04
-0.3434116E+01  0.3659539E+00  0.6303712E-02
-0.3490269E+01  0.3838165E+00  0.6596503E-04
-0.3369525E+01  0.3591533E+00  0.5236156E-03
-0.3665604E+01  0.3110108E+00  0.1398562E-04
-0.3618140E+01  0.3435815E+00  0.5841657E-04
-0.3657181E+01  0.3003930E+00  0.4598119E-04
-0.3580167E+01  0.3561280E+00  0.1979440E-04
-0.3767168E+01  0.3435411E+00  0.1571786E-03
-0.3199630E+01  0.5929977E+00  0.1251358E-03
-0.3336649E+01  0.4294164E+00  0.4207440E-04
-0.3684786E+01  0.3375690E+00  0.9932079E-04
-0.3571465E+01  0.3494420E+00  0.6547118E-04
-0.3638404E+01  0.3444805E+00  0.1723047E-04
-0.3534177E+01  0.3794619E+00  0.7012268E-04
-0.3199368E+01  0.4440728E+00  0.1394032E-03
-0.3066804E+01  0.5236246E+00  0.4991016E-02
-0.3600525E+01  0.3287961E+00  0.1712122E-04
-0.3404876E+01  0.3717523E+00  0.8810933E-05
-0.3771974E+01  0.3260181E+00  0.3587903E-03
-0.3218229E+01  0.4114350E+00  0.2116202E-03
-0.3467911E+01  0.3620212E+00  0.1980033E-03
-0.3430136E+01  0.3544172E+00  0.1621715E-04
-0.3607424E+01  0.3838029E+00  0.8677469E-04
-0.3613720E+01  0.3461769E+00  0.8210534E-05
-0.3309275E+01  0.4339604E+00  0.2250934E-04
-0.3424004E+01  0.3549141E+00  0.4668799E-04
-0.3253174E+01  0.3823945E+00  0.1821559E-03
-0.3495110E+01  0.3504040E+00  0.2871603E-04
-0.3311486E+01  0.4268499E+00  0.1204992E-04
-0.3605755E+01  0.3486754E+00  0.1105242E-03
-0.3306060E+01  0.4301543E+00  0.1220623E-03
-0.3414310E+01  0.3950022E+00  0.2748947E-04
-0.3453707E+01  0.3384216E+00  0.1302420E-04
-0.3619354E+01  0.3491331E+00  0.2067766E-03
-0.3452877E+01  0.4225574E+00  0.4026782E-04
-0.3503105E+01  0.3882830E+00  0.4357095E-04
-0.3306452E+01  0.4535403E+00  0.3473263E-04
-0.3617129E+01  0.3490815E+00  0.8245258E-04
-0.3620132E+01  0.3312732E+00  0.6869980E-05
-0.3372224E+01  0.4537820E+00  0.2748677E-03
-0.3896250E+01  0.3105355E+00  0.1676632E-02
-0.3772057E+01  0.3111999E+00  0.1207962E-03
-0.3472908E+01  0.3995757E+00  0.3214119E-03
-0.3270238E+01  0.4846322E+00  0.5133365E-04
-0.3596029E+01  0.3245665E+00  0.4344528E-04
-0.3342463E+01  0.4012137E+00  0.1087736E-04
-0.3477304E+01  0.3896862E+00  0.1437570E-04
-0.3484819E+01  0.3569496E+00  0.2885160E-04
-0.3478735E+01  0.3466145E+00  0.6336101E-03
-0.3533562E+01  0.4032674E+00  0.6421955E-04
-0.3248591E+01  0.4238447E+00  0.4072625E-04
-0.3554355E+01  0.3911527E+00  0.2460685E-04
-0.3719804E+01  0.3217754E+00  0.1235469E-02
-0.3661041E+01  0.3131822E+00  0.2222452E-03
-0.3516200E+01  0.3110268E+00  0.6775206E-02
-0.3463110E+01  0.3653524E+00  0.1045564E-04
-0.3266380E+01  0.4109682E+00  0.3921912E-03
-0.3609252E+01  0.3105407E+00  0.5380551E-04
-0.3099295E+01  0.5457178E+00  0.8317775E-04
-0.3568348E+01  0.3212272E+00  0.1063345E-04
-0.3244515E+01  0.4630971E+00  0.9323194E-04
-0.3532440E+01  0.3558433E+00  0.3590303E-04
-0.3405669E+01  0.5064113E+00  0.1063799E-03
-0.3600671E+01  0.3313553E+00  0.2016799E-03
-0.3275641E+01  0.4455250E+00  0.1033661E-03
-0.3639467E+01  0.2721246E+00  0.4193529E-04
-0.3435969E+01  0.3752977E+00  0.6811584E-04
-0.3135554E+01  0.5357941E+00  0.8741388E-04
-0.3295473E+01  0.4031105E+00  0.7769175E-04
-0.3287699E+01  0.4213556E+00  0.2553313E-04
-0.3433417E+01  0.4105350E+00  0.1618477E-04
-0.3340497E+01  0.4238343E+00  0.3114300E-04
-0.3906330E+01  0.2413949E+00  0.2825792E-02
-0.3109254E+01  0.5102996E+00  0.7436912E-03
-0.3505810E+01  0.3778841E+00  0.1476543E-04
-0.3552921E+01  0.3262229E+00  0.3546898E-04
-0.3380741E+01  0.3922291E+00  0.8150498E-05
-0.3375992E+01  0.3883363E+00  0.2453826E-04
-0.3447621E+01  0.4111421E+00  0.2905278E-04
-0.3601345E+01  0.3228305E+00  0.1170301E-04
-0.3759638E+01  0.2432161E+00  0.1467390E-03
-0.3269292E+01  0.4512476E+00  0.2531851E-04
-0.3600410E+01  0.3332703E+00  0.4332318E-04
-0.3627862E+01  0.3080945E+00  0.1428924E-03
-0.3478232E+01  0.3282342E+00  0.1872791E-03
-0.3660997E+01  0.3582626E+00  0.7588876E-04
-0.3443759E+01  0.3697375E+00  0.7341648E-05
-0.3501233E+01  0.3083027E+00  0.1431310E-03
-0.3519806E+01  0.3263965E+00  0.4615074E-04
-0.3490767E+01  0.3518052E+00  0.1916291E-04
-0.3621770E+01  0.3226100E+00  0.3343414E-04
-0.3454434E+01  0.3868524E+00  0.1804505E-04
-0.3644446E+01  0.3425101E+00  0.3607451E-04
-0.3329553E+01  0.4452098E+00  0.2453850E-04
-0.3444221E+01  0.4251941E+00  0.2004684E-03
-0.3476921E+01  0.3958641E+00  0.2458549E-04
-0.3571288E+01  0.3518984E+00  0.4009884E-04
-0.3505508E+01  0.3259385E+00  0.1934922E-04
-0.3311573E+01  0.4339155E+00  0.7891262E-04
-0.3420091E+01  0.3740706E+00  0.4980379E-03
-0.3530749E+01  0.3134260E+00  0.5124790E-04
-0.3260232E+01  0.4308791E+00  0.5247395E-04
-0.3558922E+01  0.3358057E+00  0.6548319E-04
-0.3224984E+01  0.5163966E+00  0.1099782E-03
-0.3633197E+01  0.2945529E+00  0.2714756E-04
-0.3506504E+01  0.3751300E+00  0.1096863E-04
-0.3230217E+01  0.4322785E+00  0.8339645E-04
-0.3169032E+01  0.5073851E+00  0.7946541E-04
-0.3042678E+01  0.5141934E+00  0.7242234E-03
-0.3361203E+01  0.4147773E+00  0.9194606E-05
-0.3878251E+01  0.2368296E+00  0.1716256E-03
-0.3365003E+01  0.4256021E+00  0.2443345E-04
-0.3492403E+01  0.3360843E+00  0.1643970E-04
-0.3620964E+01  0.3933544E+00  0.3394676E-04
-0.3653669E+01  0.3446978E+00  0.7560719E-03
-0.3414741E+01  0.4361440E+00  0.7244277E-04
-0.3678170E+01  0.3023600E+00  0.1919562E-04
-0.3600576E+01  0.3403640E+00  0.2054370E-04
-0.3562410E+01  0.3679695E+00  0.1210833E-04
-0.3448399E+01  0.3841283E+00  0.9791540E-04
-0.3508245E+01  0.3313096E+00  0.1749128E-03
-0.3611098E+01  0.3450493E+00  0.2254658E-04
-0.3489406E+01  0.3831534E+00  0.1913950E-03
-0.3861620E+01  0.2551677E+00  0.4566114E-03
-0.3625378E+01  0.4010395E+00  0.2155645E-03
-0.3465202E+01  0.3677088E+00  0.2255331E-04
-0.3639559E+01  0.3405938E+00  0.2825465E-04
-0.3484702E+01  0.3315237E+00  0.1888614E-04
-0.3340911E+01  0.4045483E+00  0.4536377E-04
-0.3438630E+01  0.3957648E+00  0.9160193E-04
-0.3586667E+01  0.3502958E+00  0.1102471E-04
-0.3542896E+01  0.3886075E+00  0.4083374E-04
-0.3423466E+01  0.4244957E+00  0.2789547E-03
-0.3646235E+01  0.3796552E+00  0.8725618E-04
-0.3186838E+01  0.5535220E+00  0.2049568E-03
-0.3575743E+01  0.3470219E+00  0.1501296E-04
-0.3637513E+01  0.3429596E+00  0.5958599E-04
-0.3442070E+01  0.3717163E+00  0.1098150E-04
-0.3296440E+01  0.4719656E+00  0.2478602E-03
-0.3210869E+01  0.4293126E+00  0.1431272E-03
-0.3620482E+01  0.3475731E+00  0.2142885E-04
-0.3355853E+01  0.4253983E+00  0.3350656E-04
-0.3871000E+01  0.2338453E+00  0.6576888E-03
-0.3320577E+01  0.4060307E+00  0.1637067E-04
-0.3529104E+01  0.3454249E+00  0.6756519E-05
-0.3907717E+01  0.3237198E+00  0.7638783E-02
-0.3569567E+01  0.3555228E+00  0.2017760E-04
-0.3477360E+01  0.3424997E+00  0.9312342E-05
-0.3894016E+01  0.3615402E+00  0.7138833E-03
-0.3608377E+01  0.3316873E+00  0.1559935E-03
-0.3312455E+01  0.4547054E+00  0.2047794E-03
-0.3614922E+01  0.3449297E+00  0.1236653E-04
-0.3541994E+01  0.3449533E+00  0.1288768E-04
-0.3553569E+01  0.4209421E+00  0.2138420E-02
-0.3455910E+01  0.3839445E+00  0.9456064E-05
-0.3575259E+01  0.3502018E+00  0.1289152E-03
-0.3320834E+01  0.4038400E+00  0.4851783E-04
-0.3884828E+01  0.3216384E+00  0.1555014E-02
-0.3566786E+01  0.3042757E+00  0.2170826E-04
-0.3587475E+01  0.3488617E+00  0.2518720E-04
-0.3578973E+01  0.3747325E+00  0.7849306E-04
-0.3570457E+01  0.3219673E+00  0.1887448E-04
-0.3460898E+01  0.3687275E+00  0.2557277E-04
-0.3333122E+01  0.3680511E+00  0.2794938E-04
-0.3675508E+01  0.3652833E+00  0.3120041E-04
-0.3341255E+01  0.4273849E+00  0.2059737E-04
-0.3666900E+01  0.3036013E+00  0.1280997E-04
-0.3528140E+01  0.3218177E+00  0.1481108E-04
-0.3521581E+01  0.3655023E+00  0.2163878E-04
-0.3563639E+01  0.3302903E+00  0.7369848E-04
-0.3634281E+01  0.3673319E+00  0.2277166E-04
-0.3412033E+01  0.3926294E+00  0.5794959E-04
-0.3222134E+01  0.5930641E+00  0.1836441E-03
-0.3420424E+01  0.3496295E+00  0.2595686E-04
-0.3617286E+01  0.3049277E+00  0.5924153E-04
-0.3501868E+01  0.3692024E+00  0.3290972E-03
-0.3629258E+01  0.3559028E+00  0.5219649E-04
-0.3442299E+01  0.4006255E+00  0.1306221E-03
-0.3504639E+01  0.3124529E+00  0.2527910E-03
-0.3378990E+01  0.4317143E+00  0.9471645E-05
-0.3661271E+01  0.3639229E+00  0.3624730E-04
-0.3237906E+01  0.4760066E+00  0.8410245E-04
-0.3588981E+01  0.3703479E+00  0.4805290E-04
-0.3223812E+01  0.4552025E+00  0.2561380E-04
-0.3786734E+01  0.2792993E+00  0.6477147E-04
-0.3428386E+01  0.4153468E+00  0.1537722E-04
-0.3601467E+01  0.3492401E+00  0.2026356E-01
-0.3332363E+01  0.4260474E+00  0.2139170E-04
-0.3303705E+01  0.4626398E+00  0.1773593E-03
-0.3678294E+01  0.3617681E+00  0.1124750E-03
-0.3444412E+01  0.3763472E+00  0.5756811E-04
-0.3336411E+01  0.4480183E+00  0.1308448E-04
-0.3429395E+01  0.4042228E+00  0.8860751E-05
-0.3852376E+01  0.2857058E+00  0.1703729E-03
-0.3576237E+01  0.3146399E+00  0.1471813E-04
-0.3254800E+01  0.4441854E+00  0.2375555E-04
-0.3392449E+01  0.3693170E+00  0.4128749E-04
-0.3392716E+01  0.3611948E+00  0.5420602E-04
-0.3522574E+01  0.4072003E+00  0.6261049E-03
-0.3332060E+01  0.4080876E+00  0.2633180E-04
-0.3555571E+01  0.3749619E+00  0.1557094E-04
-0.3523635E+01  0.3777705E+00  0.1306134E-04
-0.3654319E+01  0.3374499E+00  0.8556570E-04
-0.3447557E+01  0.3527058E+00  0.8043101E-05
-0.3470800E+01  0.3353207E+00  0.1448970E-04
-0.3411676E+01  0.3684536E+00  0.9951554E-04
-0.3569307E+01  0.3086365E+00  0.1500207E-04
-0.3284009E+01  0.3900135E+00  0.3540328E-03
-0.3607487E+01  0.3198141E+00  0.2927118E-03
-0.3492775E+01  0.3366025E+00  0.2736002E-04
-0.3460234E+01  0.4131925E+00  0.4827717E-04
-0.3466580E+01  0.3818547E+00  0.7472749E-05
-0.3513343E+01  0.3754805E+00  0.3020324E-04
-0.3387412E+01  0.4116094E+00  0.6433173E-05
-0.3530837E+01  0.3394357E+00  0.1439938E-04
-0.3505371E+01  0.3440683E+00  0.2878701E-04
-0.3437976E+01  0.3294530E+00  0.4191839E-04
-0.3863897E+01  0.3255271E+00  0.1585817E-03
-0.3767432E+01  0.3269781E+00  0.2710698E-02
-0.3370169E+01  0.4030460E+00  0.2085055E-04
-0.3612812E+01  0.3089032E+00  0.3710065E-03
-0.3571498E+01  0.3784627E+00  0.2242866E-04
-0.3607049E+01  0.3667900E+00  0.2942521E-03
-0.3547817E+01  0.3830843E+00  0.1944221E-04
-0.3502638E+01  0.3466346E+00  0.1019993E-03
-0.3815622E+01  0.2445508E+00  0.1511822E-03
-0.3374329E+01  0.4300315E+00  0.2701880E-04
-0.3587431E+01  0.3438318E+00  0.1278680E-04
-0.3287873E+01  0.4490106E+00  0.7452090E-04
-0.3060365E+01  0.5059420E+00  0.3365803E+00
-0.3127283E+01  0.5234641E+00  0.5497774E-04
-0.3644866E+01  0.3019245E+00  0.2956478E-04
-0.3454783E+01  0.3354853E+00  0.5459249E-04
-0.3261258E+01  0.4251910E+00  0.1441268E-03
-0.3460420E+01  0.4048708E+00  0.2713070E-03
-0.3608177E+01  0.2887451E+00  0.2907319E-02
-0.3800483E+01  0.3385709E+00  0.1647091E-03
-0.3420817E+01  0.4075612E+00  0.3176172E-04
-0.3364142E+01  0.3838532E+00  0.7897830E-04
-0.3429395E+01  0.3728458E+00  0.8718939E-05
-0.3720375E+01  0.3287747E+00  0.1044272E-03
-0.3646540E+01  0.2935611E+00  0.4565332E-04
-0.2997849E+01  0.5147785E+00  0.1155373E-02
-0.3572951E+01  0.3751755E+00  0.2969877E-04
-0.3450685E+01  0.3692368E+00  0.3486602E-04
-0.3509569E+01  0.3698770E+00  0.1160994E-04
-0.3332423E+01  0.4741620E+00  0.6778867E-04
-0.3378043E+01  0.4262883E+00  0.2872087E-03
-0.3301037E+01  0.4510500E+00  0.3221392E-03
-0.3553000E+01  0.3625143E+00  0.1722592E-04
-0.3284684E+01  0.4443302E+00  0.2073151E-03
-0.3475045E+01  0.3591598E+00  0.5289587E-04
-0.3374677E+01  0.4311327E+00  0.1351125E-03
-0.3436465E+01  0.3767443E+00  0.8925586E-04
-0.3324347E+01  0.4833672E+00  0.6953846E-04
-0.3224381E+01  0.5074840E+00  0.7285727E-04
-0.3598934E+01  0.3514264E+00  0.2280783E-02
-0.3556017E+01  0.3749831E+00  0.2304226E-04
-0.3560434E+01  0.3433406E+00  0.1152512E-04
-0.3753216E+01  0.2803430E+00  0.5185756E-04
-0.3734546E+01  0.3173782E+00  0.1204125E-03
-0.3811366E+01  0.3319518E+00  0.2024064E-02
-0.3266880E+01  0.3928652E+00  0.6974238E-03
-0.3409920E+01  0.4143715E+00  0.6976709E-03
-0.3251786E+01  0.4994966E+00  0.1025112E-03
-0.3319728E+01  0.4895824E+00  0.2241900E-04
-0.3401269E+01  0.3618203E+00  0.4620847E-04
-0.3337513E+01  0.4608187E+00  0.8849100E-03
-0.3682148E+01  0.3051444E+00  0.6201950E-04
-0.3543133E+01  0.4091314E+00  0.2458113E-03
-0.3464404E+01  0.3550240E+00  0.3169306E-04
-0.3554325E+01  0.3455674E+00  0.1670235E-04
-0.3744122E+01  0.2864159E+00  0.2665913E-04
-0.3601588E+01  0.3142071E+00  0.9750606E-04
-0.3180576E+01  0.4860559E+00  0.3569628E-04
-0.3844249E+01  0.2257238E+00  0.4524297E-01
-0.3758246E+01  0.2647376E+00  0.3986465E-03
-0.3478520E+01  0.3457743E+00  0.5622483E-04
-0.3178595E+01  0.4621335E+00  0.2109029E-02
-0.3635904E+01  0.3527374E+00  0.2599331E-04
-0.3568921E+01  0.3511993E+00  0.1217451E-04
-0.3366008E+01  0.3930365E+00  0.2956209E-04
-0.3675708E+01  0.3063851E+00  0.1327390E-04
-0.3614688E+01  0.2739512E+00  0.4753035E-03
-0.3473878E+01  0.3959025E+00  0.3303289E-04
-0.3551140E+01  0.3681812E+00  0.1284765E-03
-0.3549335E+01  0.3656163E+00  0.5084370E-04
-0.3570522E+01  0.2887411E+00  0.1512338E-03
-0.3554466E+01  0.4022067E+00  0.4831392E-04
-0.3386845E+01  0.3913286E+00  0.1184087E-03
-0.3537470E+01  0.3255356E+00  0.2368400E-04
-0.3498556E+01  0.3624018E+00  0.3350208E-04
-0.3524805E+01  0.3528884E+00  0.7184513E-04
-0.3225064E+01  0.4898535E+00  0.2707692E-04
-0.3639586E+01  0.3608848E+00  0.8482217E-02
-0.3376841E+01  0.4012031E+00  0.9756637E-05
-0.3287837E+01  0.4789734E+00  0.2825992E-03
-0.3666354E+01  0.3205972E+00  0.3296378E-04
-0.3471938E+01  0.3566590E+00  0.4123031E-04
-0.3524692E+01  0.3498367E+00  0.2955671E-04
-0.3441027E+01  0.4551243E+00  0.4366220E-03
-0.3816686E+01  0.2690099E+00  0.5726113E-04
-0.3258824E+01  0.4584825E+00  0.2078726E-04
-0.3613439E+01  0.3231055E+00  0.6267323E-02
-0.3424193E+01  0.3391784E+00  0.5951349E-04
-0.3612490E+01  0.4239751E+00  0.3996501E-02
-0.3580800E+01  0.3321766E+00  0.2801149E-04
-0.3434929E+01  0.3658769E+00  0.8820415E-05
-0.3491996E+01  0.3380752E+00  0.3920238E-04
-0.3354566E+01  0.3889954E+00  0.2828647E-03
-0.3237066E+01  0.4744360E+00  0.1255028E-04
-0.3730978E+01  0.4010705E+00  0.1634754E-03
-0.3390757E+01  0.3890378E+00  0.1092644E-02
-0.3593092E+01  0.3442630E+00  0.1032549E-04
-0.2975946E+01  0.7624128E+00  0.5487675E-02
-0.3259474E+01  0.4351573E+00  0.2709601E-03
-0.3449562E+01  0.3537267E+00  0.3607479E-02
-0.3396062E+01  0.4050643E+00  0.6848290E-05
-0.3517068E+01  0.3710812E+00  0.2870101E-04
-0.3585019E+01  0.2867338E+00  0.1954111E-03
-0.3560775E+01  0.3484792E+00  0.7503940E-04
-0.3420912E+01  0.4164577E+00  0.2474256E-04
-0.3220811E+01  0.4000817E+00  0.4013360E-02
-0.3686474E+01  0.3532403E+00  0.4057140E-03
-0.3646384E+01  0.2874717E+00  0.3405487E-03
-0.3404074E+01  0.3901268E+00  0.6945723E-04
-0.3340515E+01  0.3998907E+00  0.4473797E-04
-0.3413267E+01  0.4530313E+00  0.2188128E-04
-0.3643418E+01  0.2545404E+00  0.2430380E-02
-0.3613082E+01  0.3959095E+00  0.9066722E-04
-0.3488594E+01  0.3867576E+00  0.9153944E-05
-0.3291483E+01  0.4766877E+00  0.1264326E-04
-0.3798568E+01  0.2721695E+00  0.2056114E-03
-0.3689176E+01  0.3061600E+00  0.2352912E-04
-0.3787491E+01  0.2448147E+00  0.1941420E-03
-0.3928376E+01  0.3403398E+00  0.1739464E-02
-0.3167680E+01  0.5431525E+00  0.2857579E-03
-0.3515246E+01  0.3676796E+00  0.2128255E-04
-0.3391391E+01  0.3800263E+00  0.3651981E-04
-0.3627596E+01  0.4245217E+00  0.1000696E-03
-0.3595467E+01  0.3484008E+00  0.5173270E-04
-0.3485595E+01  0.3564412E+00  0.9940158E-03
-0.3420147E+01  0.3226297E+00  0.2793171E-03
-0.3521771E+01  0.3206339E+00  0.2863953E-03
-0.3627115E+01  0.3259181E+00  0.2660936E-04
-0.3426610E+01  0.3403605E+00  0.2409339E-03
-0.3652919E+01  0.3743089E+00  0.7988512E-04
-0.4027220E+01  0.2694788E+00  0.7069173E-02
-0.3681460E+01  0.3065355E+00  0.2656076E-04
-0.3266284E+01  0.4704749E+00  0.3881484E-04
-0.3847783E+01  0.2553032E+00  0.8426655E-03
-0.3472394E+01  0.3601556E+00  0.3714195E-04
-0.3744231E+01  0.4036502E+00  0.3136096E-03
-0.3692120E+01  0.3244214E+00  0.9377146E-04
-0.3533330E+01  0.3336764E+00  0.6184649E-03
-0.3697790E+01  0.3012638E+00  0.6662726E-03
-0.3193351E+01  0.5623272E+00  0.5817867E-04
-0.3451909E+01  0.3962040E+00  0.3521730E-04
-0.3353021E+01  0.3981771E+00  0.4169252E-02
-0.3427719E+01  0.3909463E+00  0.9197472E-05
-0.3471114E+01  0.3823403E+00  0.9063370E-05
-0.3378189E+01  0.4525411E+00  0.1279966E-03
-0.2969076E+01  0.6088175E+00  0.6557544E-03
-0.3416150E+01  0.3980491E+00  0.1826880E-04
-0.3307931E+01  0.4199887E+00  0.3343337E-04
-0.3673478E+01  0.3403521E+00  0.6445632E-04
-0.3526778E+01  0.3338926E+00  0.1675270E-04
-0.3757564E+01  0.3089930E+00  0.2085468E-04
-0.3544798E+01  0.3960381E+00  0.2234779E-02
-0.3171683E+01  0.4457877E+00  0.7403708E-04
-0.3447483E+01  0.3320976E+00  0.8424247E-04
-0.3503096E+01  0.3761195E+00  0.1018330E-04
-0.3501109E+01  0.3948901E+00  0.3078520E-04
-0.3562625E+01  0.3247221E+00  0.3225103E-04
-0.3501830E+01  0.3775480E+00  0.3408753E-04
-0.3331804E+01  0.4379531E+00  0.1318124E-03
-0.3231829E+01  0.5205173E+00  0.4233322E-04
-0.3824466E+01  0.3024306E+00  0.3628531E-03
-0.3658842E+01  0.3507906E+00  0.6677330E-03
-0.3380654E+01  0.4232412E+00  0.1222269E-04
-0.3582626E+01  0.3582809E+00  0.2668494E-04
-0.3362411E+01  0.4291879E+00  0.3850139E-04
-0.3789613E+01  0.2932375E+00  0.7375303E-03
-0.3745645E+01  0.2946911E+00  0.1021977E-03
-0.3459874E+01  0.3704081E+00  0.7160911E-05
-0.3159227E+01  0.6261118E+00  0.7315506E-03
-0.3449847E+01  0.3389115E+00  0.1073683E-04
-0.3489401E+01  0.3821211E+00  0.3569373E-04
-0.3427827E+01  0.3878092E+00  0.8228355E-05
-0.3415798E+01  0.4125654E+00  0.7052021E-04
-0.3491360E+01  0.3688858E+00  0.1419246E-04
-0.3334863E+01  0.4320364E+00  0.1051536E-04
-0.3329244E+01  0.4071015E+00  0.1035523E-04
-0.3546023E+01  0.3619652E+00  0.1039338E-04
-0.3533339E+01  0.4037224E+00  0.6141353E-04
-0.3754675E+01  0.2655325E+00  0.5027417E-03
-0.3384303E+01  0.3567067E+00  0.1141386E-02
-0.3692954E+01  0.2999271E+00  0.1317949E-04
-0.3368661E+01  0.3600138E+00  0.7676589E-04
-0.3126881E+01  0.4549879E+00  0.7538808E-04
-0.3375435E+01  0.3817014E+00  0.4235055E-04
-0.3393871E+01  0.3876428E+00  0.9453524E-05
-0.3628770E+01  0.3214998E+00  0.2081396E-04
-0.3482866E+01  0.3361039E+00  0.4098562E-04
-0.3356970E+01  0.4580480E+00  0.1384388E-03
-0.3717792E+01  0.2782876E+00  0.4590814E-04
-0.3302161E+01  0.4545025E+00  0.8457400E-05
-0.3439584E+01  0.4115603E+00  0.2056505E-04
-0.3612997E+01  0.3464045E+00  0.9832805E-05
-0.3804501E+01  0.3165527E+00  0.9760236E-04
-0.3418907E+01  0.3567237E+00  0.1379368E-04
-0.3298874E+01  0.3910399E+00  0.4192885E-04
-0.3389164E+01  0.4274786E+00  0.4531115E-04
-0.3629556E+01  0.2944376E+00  0.1303227E-03
-0.3642774E+01  0.3876029E+00  0.1042183E-02
-0.3438616E+01  0.3494276E+00  0.3597229E-03
-0.3847809E+01  0.2545398E+00  0.1014009E-03
-0.3725270E+01  0.3040269E+00  0.1768265E-02
-0.3292442E+01  0.4519117E+00  0.3064590E-04
-0.3500258E+01  0.3875106E+00  0.9764757E-05
-0.3560530E+01  0.3504795E+00  0.7397104E-05
-0.3548827E+01  0.3494105E+00  0.2339936E-04
-0.3251804E+01  0.4912981E+00  0.3667077E-04
-0.3446324E+01  0.3671665E+00  0.1755217E-04
-0.3324452E+01  0.4167847E+00  0.1503090E-04
-0.3073864E+01  0.5612774E+00  0.1096407E-03
-0.3633027E+01  0.3543039E+00  0.2747357E-04
-0.3286268E+01  0.4186415E+00  0.3557830E-04
-0.3528050E+01  0.4010347E+00  0.1202295E-03
-0.3681248E+01  0.3077070E+00  0.1236900E-04
-0.3555628E+01  0.3155604E+00  0.1050346E-01
-0.3416066E+01  0.3803518E+00  0.1448257E-03
-0.3373325E+01  0.3765024E+00  0.1243874E-04
-0.3330757E+01  0.4287281E+00  0.1314981E-03
-0.3295137E+01  0.4666504E+00  0.1174035E-03
-0.3442549E+01  0.4240031E+00  0.1914335E-04
-0.3312874E+01  0.4952209E+00  0.1117342E-03
-0.3319965E+01  0.4005160E+00  0.5296794E-04
-0.3572018E+01  0.3374947E+00  0.2106443E-04
-0.3774821E+01  0.3400943E+00  0.8081852E-03
-0.3588134E+01  0.3224613E+00  0.1102500E-04
-0.3430032E+01  0.4291444E+00  0.2088033E-02
-0.3378126E+01  0.3893342E+00  0.6178901E-04
-0.3546389E+01  0.3779907E+00  0.1265768E-04
-0.3581429E+01  0.3231151E+00  0.1622022E-04
-0.3590224E+01  0.3337703E+00  0.1229740E-04
-0.3476550E+01  0.3534888E+00  0.5696019E-04
-0.3335779E+01  0.3724850E+00  0.6392374E-04
-0.3593271E+01  0.2986632E+00  0.1883762E-04
-0.3359044E+01  0.3621838E+00  0.4954654E-03
-0.3629118E+01  0.3288144E+00  0.1192623E-04
-0.3781107E+01  0.3168216E+00  0.5351828E-04
-0.3373961E+01  0.4009553E+00  0.3080510E-03
-0.3578174E+01  0.3394013E+00  0.5715037E-03
-0.3658594E+01  0.3098694E+00  0.4378580E-04
-0.3455322E+01  0.3384726E+00  0.5389631E-04
-0.3845192E+01  0.2596030E+00  0.6307100E-04
-0.3709472E+01  0.3087613E+00  0.2121740E-04
-0.3615045E+01  0.3386142E+00  0.2256624E-04
-0.3175935E+01  0.4371190E+00  0.6596135E-04
-0.3451743E+01  0.3581695E+00  0.1334817E-04
-0.3481447E+01  0.3746672E+00  0.1745109E-04
-0.3648433E+01  0.3080756E+00  0.3098959E-04
-0.3858784E+01  0.4017524E+00  0.1777930E-02
-0.3566637E+01  0.3076859E+00  0.5623589E-04
-0.3709440E+01  0.2938562E+00  0.1263967E-03
-0.3648140E+01  0.3254668E+00  0.2851294E-04
-0.3407024E+01  0.3677766E+00  0.7193253E-04
-0.3652243E+01  0.2938227E+00  0.5405557E-03
-0.3480967E+01  0.3658807E+00  0.1599839E-04
-0.3618992E+01  0.3497615E+00  0.1851239E-04
-0.3180720E+01  0.5344663E+00  0.3612347E-04
-0.3377944E+01  0.4050101E+00  0.7413015E-05
-0.3061999E+01  0.5796007E+00  0.1408576E-02
-0.3623539E+01  0.3769358E+00  0.4275998E-03
-0.3439649E+01  0.3728643E+00  0.1216199E-04
-0.3410013E+01  0.4071244E+00  0.4311832E-04
-0.3498596E+01  0.3147426E+00  0.5450054E-04
-0.3603041E+01  0.2981721E+00  0.1092672E-03
-0.3687440E+01  0.3622450E+00  0.6260776E-04
-0.3506822E+01  0.3658075E+00  0.4451121E-04
-0.3637711E+01  0.3450023E+00  0.3183837E-04
-0.3400487E+01  0.4108959E+00  0.4834137E-04
-0.3440291E+01  0.3753590E+00  0.4705313E-04
-0.3760253E+01  0.3046651E+00  0.5389641E-04
-0.3610713E+01  0.3373359E+00  0.1715776E-04
-0.3320124E+01  0.6840795E+00  0.8902559E-02
-0.3241154E+01  0.4182460E+00  0.4126064E-04
-0.3469701E+01  0.3982580E+00  0.1454148E-04
-0.3547018E+01  0.3993480E+00  0.4102357E-04
-0.3561198E+01  0.2936840E+00  0.4867544E-04
-0.3594554E+01  0.2967165E+00  0.1752844E-04
-0.3319317E+01  0.3660188E+00  0.1288202E-03
-0.3539258E+01  0.3521690E+00  0.8135953E-05
-0.3643427E+01  0.2896750E+00  0.3304722E-04
-0.3366951E+01  0.4149274E+00  0.8721398E-04
-0.3575177E+01  0.3316030E+00  0.1440547E-04
-0.3572172E+01  0.3538622E+00  0.6234429E-04
-0.3573318E+01  0.3945158E+00  0.2555982E-03
-0.3622796E+01  0.3300447E+00  0.1077481E-04
-0.3525012E+01  0.3922630E+00  0.3775867E-04
-0.3584483E+01  0.3626740E+00  0.3255554E-04
-0.3709788E+01  0.3727781E+00  0.2431842E-02
-0.3496758E+01  0.3376266E+00  0.4007193E-04
-0.3587419E+01  0.3264094E+00  0.1700126E-04
-0.3336588E+01  0.4496156E+00  0.3477055E-04
-0.3574904E+01  0.3317421E+00  0.1079056E-04
-0.3560076E+01  0.3327026E+00  0.6944901E-03
-0.3446680E+01  0.3577075E+00  0.2644936E-04
-0.3578687E+01  0.4036565E+00  0.2006375E-03
-0.3675781E+01  0.3212183E+00  0.2943095E-04
-0.3855844E+01  0.2795908E+00  0.5352838E-04
-0.3743667E+01  0.2875388E+00  0.7812709E-04
-0.3331680E+01  0.4507294E+00  0.1606362E-04
-0.3682307E+01  0.2958846E+00  0.1192929E-04
-0.3425406E+01  0.4274703E+00  0.1948905E-04
-0.3601017E+01  0.3332466E+00  0.9483628E-05
-0.3612345E+01  0.3455093E+00  0.1490810E-03
-0.3396198E+01  0.4226147E+00  0.1511862E-04
-0.3488628E+01  0.3927152E+00  0.7243076E-03
-0.3416858E+01  0.3937204E+00  0.1567757E-03
-0.3660143E+01  0.3203338E+00  0.9866013E-05
-0.3487051E+01  0.3844398E+00  0.3544072E-04
-0.3534164E+01  0.3742236E+00  0.1461182E-04
-0.3296051E+01  0.5575050E+00  0.3934050E-03
-0.3599606E+01  0.3155519E+00  0.9978577E-03
-0.3628872E+01  0.3005969E+00  0.3416795E-04
-0.3393850E+01  0.3636419E+00  0.3374301E-04
-0.3358222E+01  0.3881703E+00  0.1721397E-04
-0.3522945E+01  0.3582941E+00  0.7568250E-05
-0.3413224E+01  0.3201414E+00  0.4828732E-03
-0.3675168E+01  0.2895434E+00  0.1103106E-03
-0.3227184E+01  0.4875968E+00  0.2810357E-02
-0.3310948E+01  0.4717438E+00  0.1012540E-02
-0.3616582E+01  0.3793451E+00  0.7028649E-04
-0.3247839E+01  0.4567331E+00  0.1339426E-04
-0.3222050E+01  0.4489896E+00  0.3584767E-04
-0.3075758E+01  0.5318948E+00  0.1075892E-01
-0.3652645E+01  0.3551884E+00  0.2224397E-04
-0.3479085E+01  0.3822889E+00  0.2502761E-04
-0.3629982E+01  0.3084461E+00  0.5141503E-04
-0.3472313E+01  0.4032831E+00  0.4809473E-04
-0.3349379E+01  0.3919103E+00  0.2226552E-04
-0.3422111E+01  0.3862458E+00  0.6549357E-05
-0.3651123E+01  0.2785384E+00  0.9317598E-04
-0.3580960E+01  0.3409445E+00  0.6842281E-04
-0.3902289E+01  0.2739545E+00  0.1038010E-03
-0.3455177E+01  0.3353525E+00  0.7692728E-04
-0.3326356E+01  0.3647742E+00  0.4096520E-04
-0.3310698E+01  0.4188720E+00  0.8194932E-04
-0.3657435E+01  0.3354163E+00  0.1179040E-03
-0.3436584E+01  0.4322575E+00  0.8536115E-04
-0.3357300E+01  0.4230196E+00  0.1518799E-04
-0.3338765E+01  0.4823160E+00  0.4464019E-04
-0.3334515E+01  0.4127262E+00  0.4529983E-04
-0.3051061E+01  0.5317904E+00  0.1173851E-03
-0.3215164E+01  0.4780426E+00  0.3452788E-03
-0.3351752E+01  0.3904917E+00  0.1075972E-04
-0.3048554E+01  0.5403772E+00  0.2187092E-03
-0.3650426E+01  0.2758629E+00  0.3304413E-03
-0.3485590E+01  0.3588211E+00  0.3935630E-04
-0.3175889E+01  0.4671701E+00  0.2266864E-04
-0.3362969E+01  0.4061129E+00  0.7823005E-04
-0.3693266E+01  0.3651109E+00  0.1786571E-03
-0.3370571E+01  0.3931234E+00  0.2298979E-04
-0.3517342E+01  0.3699777E+00  0.5039378E-04
-0.3509132E+01  0.3568349E+00  0.1154659E-04
-0.3434133E+01  0.4107936E+00  0.8013594E-05
-0.3344617E+01  0.4111727E+00  0.4700858E-01
-0.3560398E+01  0.3363362E+00  0.2318943E-04
-0.3427282E+01  0.3973904E+00  0.1681310E-04
-0.3489117E+01  0.3713817E+00  0.9558297E-05
-0.3452490E+01  0.3508095E+00  0.7827808E-04
-0.3369721E+01  0.3989417E+00  0.2408775E-04
-0.3338001E+01  0.3905390E+00  0.1697010E-04
-0.3616188E+01  0.2944389E+00  0.1461993E-04
-0.3409649E+01  0.3911787E+00  0.1492783E-04
-0.3485022E+01  0.4084606E+00  0.3232804E-04
-0.3105660E+01  0.5317486E+00  0.6870180E-04
-0.3669397E+01  0.2801688E+00  0.2785291E-04
-0.3607463E+01  0.2875300E+00  0.2083459E-03
-0.3687514E+01  0.3178559E+00  0.1707550E-03
-0.3443655E+01  0.4140152E+00  0.1088018E-03
-0.3628822E+01  0.3252815E+00  0.7728308E-05
-0.3566285E+01  0.3399380E+00  0.2110772E-04
-0.3589969E+01  0.3559752E+00  0.4436451E-03
-0.3636030E+01  0.3686536E+00  0.2151262E-03
-0.3603215E+01  0.3783769E+00  0.3929981E-04
-0.4134898E+01  0.2023152E+00  0.5761608E-01
-0.3401842E+01  0.4100680E+00  0.4690966E-04
-0.3092659E+01  0.4809572E+00  0.4179017E-02
-0.3460759E+01  0.4028377E+00  0.2962410E-04
-0.3473692E+01  0.3415810E+00  0.1132059E-03
-0.3314456E+01  0.4036509E+00  0.1231240E-04
-0.3574627E+01  0.3096507E+00  0.6853791E-04
-0.3350187E+01  0.4014021E+00  0.2515359E-04
-0.3283482E+01  0.4416320E+00  0.3436738E-04
-0.3520375E+01  0.3637477E+00  0.2321948E-04
-0.3715385E+01  0.2515878E+00  0.4031764E-03
-0.3396280E+01  0.4231295E+00  0.1445670E-04
-0.3532263E+01  0.3890993E+00  0.4034838E-03
-0.3504361E+01  0.3204993E+00  0.4093586E-04
-0.3518082E+01  0.3723336E+00  0.1294264E-04
-0.3567862E+01  0.3612716E+00  0.2339858E-04
-0.3529040E+01  0.3209474E+00  0.1254344E-04
-0.3360896E+01  0.4244727E+00  0.1433428E-04
-0.3367537E+01  0.3951414E+00  0.5787017E-04
-0.3697191E+01  0.3051678E+00  0.3759835E-04
-0.3497909E+01  0.3747023E+00  0.5995809E-04
-0.3675743E+01  0.2755788E+00  0.1927529E-03
-0.3882183E+01  0.3445008E+00  0.4609574E-03
-0.3468095E+01  0.4087067E+00  0.3590683E-04
-0.3403573E+01  0.4254664E+00  0.1131652E-04
-0.3583452E+01  0.3442447E+00  0.1424349E-04
-0.3230561E+01  0.4586964E+00  0.9358522E-04
-0.3497426E+01  0.3451298E+00  0.2206319E-04
-0.3782465E+01  0.2028610E+00  0.1713782E-02
-0.3548898E+01  0.3538003E+00  0.6557226E-05
-0.3694220E+01  0.3354895E+00  0.1022658E-03
-0.3648135E+01  0.2996751E+00  0.1186650E-04
-0.3470365E+01  0.3709430E+00  0.3553403E-04
-0.3490594E+01  0.3783047E+00  0.3642775E-04
-0.3450316E+01  0.3567547E+00  0.6665280E-05
-0.3426520E+01  0.3911628E+00  0.5308645E-03
-0.3343801E+01  0.4430617E+00  0.3064229E-04
-0.3507248E+01  0.3465563E+00  0.3301154E-04
-0.3516475E+01  0.3248809E+00  0.2728677E-04
-0.4102567E+01  0.2366901E+00  0.2659008E-02
-0.3537182E+01  0.3858981E+00  0.3455345E-03
-0.3744730E+01  0.2502704E+00  0.8389654E-04
-0.3217929E+01  0.4731598E+00  0.4357490E-03
-0.3506449E+01  0.4033462E+00  0.3634819E-02
-0.3610715E+01  0.4526373E+00  0.6338338E-03
-0.3516903E+01  0.3894761E+00  0.3256068E-03
-0.3441449E+01  0.3969118E+00  0.2464469E-04
-0.3210949E+01  0.4629091E+00  0.4543372E-03
